   9.2000000e+01   5.4711227e-02
   9.3000000e+01  -3.5946938e-02
   9.4000000e+01  -8.1403597e-02
   9.5000000e+01  -3.6521743e-02
   9.6000000e+01   3.3005380e-02
   9.7000000e+01   8.6713368e-02
   9.8000000e+01   5.8826539e-02
   9.9000000e+01   9.5513515e-03
   1.0000000e+02  -1.7348761e-02
   1.0100000e+02  -3.5674702e-02
   1.0200000e+02  -4.3029210e-03
   1.0300000e+02   1.9513900e-02
   1.0400000e+02   2.3921638e-02
   1.0500000e+02  -3.3008495e-02
   1.0700000e+02  -1.0743722e-02
   1.0800000e+02   9.8594432e-03
   1.1000000e+02   6.8915116e-02
   1.1100000e+02   5.8209651e-02
   1.1200000e+02  -2.8955059e-02
   1.1300000e+02  -7.6676050e-02
   1.1400000e+02  -1.0344339e-02
   1.1600000e+02   8.1608267e-02
   1.1700000e+02   1.7592523e-03
   1.1800000e+02   1.3303563e-01
   1.1900000e+02  -5.4415282e-02
   1.2000000e+02  -4.1074905e-02
   1.2100000e+02   4.5306187e-02
   1.2200000e+02   6.4314701e-02
   1.2300000e+02   5.0530954e-02
   1.2400000e+02  -6.4144759e-03
   1.2500000e+02  -3.0081862e-02
   1.2600000e+02  -6.9686988e-02
   1.2800000e+02   1.2484659e-01
   1.2900000e+02   8.9066457e-02
   1.3000000e+02   5.7224795e-02
   1.3100000e+02  -5.9714575e-02
   1.3200000e+02  -1.4049083e-01
   1.3300000e+02  -3.6125843e-02
   1.3400000e+02   1.0345843e-01
   1.3500000e+02   3.9945157e-02
   1.3700000e+02  -4.1957379e-02
   1.3800000e+02  -8.5670678e-02
   1.3900000e+02   2.5034940e-02
   1.4000000e+02   9.2340391e-02
   1.4100000e+02   8.8446795e-02
   1.4200000e+02   4.9389338e-02
   1.4300000e+02   5.1556034e-03
   1.4400000e+02  -2.2827530e-02
   1.4500000e+02  -3.0794964e-02
   1.4600000e+02   1.2480095e-01
   1.4800000e+02  -6.4740021e-03
   1.4900000e+02  -8.8978930e-02
   1.5000000e+02  -7.5378941e-02
   1.5100000e+02  -2.8274601e-02
   1.5200000e+02  -3.4143422e-02
   1.5300000e+02   4.2421087e-02
   1.5400000e+02   3.7393035e-02
   1.5500000e+02   2.7894039e-02
   1.5600000e+02  -1.2673455e-02
   1.5700000e+02  -3.2054366e-02
   1.5800000e+02  -5.0182425e-02
   1.5900000e+02   4.9141125e-02
   1.6000000e+02   5.9385108e-02
   1.6100000e+02   2.7443573e-02
   1.6200000e+02  -4.2769369e-02
   1.6300000e+02   4.1490529e-03
   1.6400000e+02  -1.5153480e-03
   1.6500000e+02   3.9395059e-02
   1.6600000e+02   9.2217350e-02
   1.6700000e+02  -2.1523777e-02
   1.6800000e+02   7.8361828e-02
   1.6900000e+02  -8.5984088e-02
   1.7000000e+02  -2.7550387e-02
   1.7100000e+02   1.0718016e-01
   1.7200000e+02   1.2852438e-01
   1.7300000e+02  -2.1575001e-03
   1.7500000e+02  -6.0838715e-02
   1.7600000e+02   3.1212057e-03
   1.7700000e+02   3.4226900e-02
   1.7800000e+02   5.6083481e-02
   1.7900000e+02   7.8572028e-02
   1.8000000e+02   2.7579483e-03
   1.8100000e+02   1.7102807e-03
   1.8200000e+02  -1.6985749e-03
   1.8300000e+02  -3.1787344e-02
   1.8400000e+02   4.5233970e-02
   1.8500000e+02   6.4781026e-02
   1.8600000e+02   5.4446725e-02
   1.8700000e+02   1.5450167e-02
   1.8800000e+02  -3.3268547e-02
   1.8900000e+02  -2.8625684e-03
   1.9000000e+02   3.7922633e-02
   1.9100000e+02   3.6350004e-02
   1.9200000e+02  -3.9505659e-03
   1.9300000e+02  -5.8224038e-03
   1.9400000e+02  -3.0759543e-02
   1.9500000e+02  -7.1133037e-02
   1.9600000e+02   7.3740622e-03
   1.9700000e+02   4.5234353e-02
   1.9900000e+02  -1.5005415e-02
   2.0000000e+02  -1.4635406e-02
   2.0100000e+02  -5.2050559e-02
   2.0200000e+02  -1.4099890e-02
   2.0300000e+02   4.4858165e-02
   2.0400000e+02  -9.3625334e-03
   2.0500000e+02   1.4822507e-02
   2.0600000e+02  -5.9845428e-02
   2.0700000e+02  -1.9002717e-02
   2.0800000e+02  -3.6909690e-02
   2.0900000e+02  -1.2126981e-02
   2.1000000e+02   1.3319453e-02
   2.1200000e+02  -2.4061235e-02
   2.1300000e+02   8.8645797e-03
   2.1500000e+02   3.2665785e-03
   2.1600000e+02   9.6133773e-02
   2.1700000e+02   7.0238089e-02
   2.1800000e+02  -2.8621721e-02
   2.1900000e+02  -3.3418531e-02
   2.2000000e+02  -6.5800481e-02
   2.2200000e+02   6.6495997e-02
   2.2300000e+02   4.4564956e-02
   2.2400000e+02   2.8897791e-03
   2.2500000e+02  -2.5656683e-02
   2.2600000e+02  -5.3787870e-03
   2.2800000e+02   5.5075048e-02
   2.2900000e+02   6.5485659e-02
   2.3000000e+02   3.2677933e-03
   2.3100000e+02  -2.9723133e-02
   2.3200000e+02  -5.7347045e-02
   2.3300000e+02  -5.8329164e-02
   2.3400000e+02   2.9040764e-02
   2.3500000e+02   1.2548915e-01
   2.3600000e+02   4.0066238e-02
   2.3700000e+02   8.8312075e-03
   2.3800000e+02  -3.6078648e-02
   2.3900000e+02  -1.4273451e-02
   2.4000000e+02   5.7881625e-03
   2.4100000e+02   4.5370603e-02
   2.4300000e+02   7.4911716e-03
   2.4400000e+02  -4.9570664e-02
   2.4500000e+02  -1.4580625e-02
   2.4600000e+02   7.4867086e-02
   2.4700000e+02   7.9294055e-02
   2.4800000e+02   1.1332655e-01
   2.4900000e+02  -2.0831916e-02
   2.5000000e+02  -6.1136473e-02
   2.5100000e+02  -5.5614427e-02
   2.5200000e+02   4.0290536e-02
   2.5300000e+02   6.0356349e-02
   2.5400000e+02   4.7076583e-02
   2.5500000e+02   2.3822238e-02
   2.5600000e+02   8.5083304e-03
   2.5700000e+02  -3.9540793e-02
   2.5800000e+02   4.0251905e-02
   2.5900000e+02   2.0386491e-02
   2.6000000e+02   7.6540452e-02
   2.6100000e+02  -1.5688101e-02
   2.6200000e+02  -2.2271550e-02
   2.6400000e+02  -2.3004827e-02
   2.6500000e+02   1.8203587e-02
   2.6600000e+02   1.6841448e-01
   2.6700000e+02   4.9634551e-02
   2.6800000e+02  -1.8749274e-02
   2.6900000e+02  -6.8685992e-02
   2.7000000e+02  -8.3204281e-03
   2.7100000e+02   3.6290113e-02
   2.7200000e+02   4.9686112e-02
   2.7300000e+02   6.6477624e-03
   2.7400000e+02  -6.4578477e-02
   2.7500000e+02  -8.4283404e-02
   2.7600000e+02  -5.2089886e-02
   2.7700000e+02  -2.5872928e-02
   2.7800000e+02   4.3572928e-02
   2.7900000e+02   2.6172621e-02
   2.8000000e+02  -6.2556572e-02
   2.8100000e+02  -4.8634964e-02
   2.8200000e+02   6.5170091e-02
   2.8300000e+02   2.4860474e-03
   2.8400000e+02   1.0531054e-02
   2.8500000e+02   1.3967462e-02
   2.8600000e+02   4.6486594e-02
   2.8700000e+02  -1.4160296e-02
   2.8800000e+02  -9.2828395e-02
   2.8900000e+02  -9.1628040e-03
   2.9200000e+02   4.2223114e-02
   2.9300000e+02  -1.4776866e-02
   2.9400000e+02  -1.3294457e-02
   2.9600000e+02   5.6761270e-02
   2.9700000e+02   3.8841012e-02
   2.9800000e+02   4.8176101e-02
   2.9900000e+02  -4.4427311e-03
   3.0000000e+02  -2.3367108e-02
   3.0100000e+02  -2.8103759e-02
   3.0200000e+02  -2.1428590e-02
